{
 "biases": [
  [
   [
    -0.81612241268158
   ],
   [
    -0.00507694529369
   ],
   [
    -0.65182667970657
   ],
   [
    0.448000907897949
   ],
   [
    -0.80613392591476
   ],
   [
    4.09443283081055
   ],
   [
    -0.65417432785034
   ],
   [
    -3.62220668792725
   ],
   [
    0.384507417678833
   ],
   [
    -3.95768356323242
   ],
   [
    -0.33067962527275
   ],
   [
    -0.86032521724701
   ],
   [
    1.58008110523224
   ],
   [
    0.0544247031211853
   ],
   [
    0.872111618518829
   ],
   [
    0.0651274770498276
   ]
  ],
  [
   [
    -2.05077576637268
   ],
   [
    -0.41775259375572
   ],
   [
    -1.11826109886169
   ],
   [
    -0.46664676070213
   ],
   [
    -0.53182172775269
   ],
   [
    0.181374311447144
   ],
   [
    0.158319160342216
   ],
   [
    -0.81338411569595
   ],
   [
    -0.30475723743439
   ],
   [
    -0.52105045318604
   ],
   [
    0.0155015708878636
   ],
   [
    1.12349045276642
   ],
   [
    2.61222624778748
   ],
   [
    -0.60097873210907
   ],
   [
    0.382813096046448
   ],
   [
    0.0479243397712708
   ]
  ],
  [
   [
    0.170402437448502
   ],
   [
    4.42590570449829
   ],
   [
    -0.04979313537478
   ]
  ]
 ],
 "layer_sizes": [
  6,
  16,
  16,
  3
 ],
 "weights": [
  [
   [
    0.626284778118134,
    -1.36729681491852,
    1.35104203224182,
    0.0366201661527157,
    -6.59052991867065,
    0.652881443500519
   ],
   [
    0.51231724023819,
    -3.56265926361084,
    -1.27564096450806,
    -0.40569746494293,
    -2.40782642364502,
    -2.07753658294678
   ],
   [
    -1.06573843955994,
    -2.53097343444824,
    -1.05237340927124,
    -2.73077988624573,
    -0.47251862287521,
    -2.02308225631714
   ],
   [
    -1.52420091629028,
    -3.38037848472595,
    -0.10844675451517,
    -3.2247371673584,
    -3.77090501785278,
    -1.72189617156982
   ],
   [
    -0.39984056353569,
    2.00526642799377,
    -1.05382990837097,
    -3.6832013130188,
    1.08984589576721,
    -2.07257580757141
   ],
   [
    -4.05903673171997,
    -10.2622985839844,
    2.61575150489807,
    -9.4087381362915,
    -6.96763610839844,
    -5.88312768936157
   ],
   [
    -1.63996458053589,
    -1.38957834243774,
    -0.31599062681198,
    -2.24442172050476,
    -1.50923550128937,
    -1.42109405994415
   ],
   [
    0.00000864919275045395,
    0.521460175514221,
    -0.30098560452461,
    2.8622522354126,
    3.24532032012939,
    -2.0981297492981
   ],
   [
    0.629279971122742,
    -3.53596949577332,
    -0.71883207559586,
    -1.25205898284912,
    -3.27955436706543,
    -2.88108158111572
   ],
   [
    -1.16956996917725,
    -0.3268806040287,
    0.448955804109573,
    -0.34289559721947,
    5.53698921203613,
    -0.18280935287476
   ],
   [
    -1.34263241291046,
    0.39977166056633,
    0.328578650951385,
    -2.7040388584137,
    -1.63101351261139,
    0.569333136081696
   ],
   [
    -1.83735537528992,
    1.01655685901642,
    -1.36260151863098,
    -3.17553186416626,
    3.25191569328308,
    2.065434217453
   ],
   [
    -2.16233491897583,
    3.02095580101013,
    -0.96103352308273,
    -3.93964052200317,
    -0.51091814041138,
    0.0826052948832512
   ],
   [
    0.641266703605652,
    -3.77598524093628,
    -0.59304511547089,
    1.4254332780838,
    0.178341493010521,
    -3.16327691078186
   ],
   [
    -2.18894696235657,
    3.41811537742615,
    -1.46809935569763,
    -4.93572330474854,
    3.40342545509338,
    2.45761036872864
   ],
   [
    1.56254971027374,
    0.065264068543911,
    -2.15989232063293,
    0.0408720076084137,
    1.95312583446503,
    -3.68094038963318
   ]
  ],
  [
   [
    -4.62504911422729,
    -0.41895908117294,
    0.849448978900909,
    -1.37240934371948,
    -0.34797051548958,
    0.551489651203156,
    -0.60182476043701,
    2.41268563270569,
    -1.28003203868866,
    2.29479718208313,
    -1.51353716850281,
    -1.96633946895599,
    -0.93819892406464,
    1.41344976425171,
    -2.41911911964417,
    0.423390656709671
   ],
   [
    -0.62768822908401,
    -0.17468698322773,
    -0.46259218454361,
    -0.27848091721535,
    -0.72305661439896,
    -0.96130871772766,
    -0.20788878202438,
    0.527356088161469,
    -0.22538681328297,
    -0.87425005435944,
    -0.5167977809906,
    -0.84115940332413,
    -1.01663589477539,
    -0.05714058503509,
    -0.82352042198181,
    -0.7835396528244
   ],
   [
    -0.39177933335304,
    -0.36729580163956,
    -0.44489979743958,
    -0.13205082714558,
    -0.68407243490219,
    -1.43281126022339,
    -0.28061985969543,
    -1.6828625202179,
    -0.37337628006935,
    -0.09045822173357,
    -0.13867238163948,
    0.750951170921326,
    0.445856958627701,
    -1.50741803646088,
    0.639504909515381,
    -1.50379061698914
   ],
   [
    -0.39006704092026,
    -0.7281574010849,
    -0.50641059875488,
    -1.05746626853943,
    -0.99330198764801,
    -0.78761947154999,
    -0.37370818853378,
    0.451596617698669,
    -0.53417652845383,
    -0.57261145114899,
    -0.41289260983467,
    -0.35460922122002,
    -0.68460774421692,
    -0.36487710475922,
    -0.78069096803665,
    -1.1150221824646
   ],
   [
    0.0385861545801163,
    -0.20907673239708,
    -0.66460424661636,
    -0.32038462162018,
    -0.68932044506073,
    -1.67731428146362,
    -0.11861487478018,
    -1.63095808029175,
    0.0518821626901627,
    -2.04317283630371,
    0.421748578548431,
    0.275597959756851,
    0.807822823524475,
    -0.09962479770184,
    0.479472190141678,
    -0.15974429249763
   ],
   [
    -1.53639423847198,
    0.309745490550995,
    0.172842085361481,
    -1.26093053817749,
    -0.98680657148361,
    -1.0830625295639,
    0.123587846755981,
    0.786036133766174,
    -0.02121362276375,
    0.748375236988068,
    -0.77554941177368,
    -0.87409591674805,
    0.109952300786972,
    1.2211639881134,
    -0.2037888020277,
    0.340732395648956
   ],
   [
    -1.14410471916199,
    -0.31403791904449,
    -0.20608453452587,
    -0.59927797317505,
    -0.97016495466232,
    -0.48943364620209,
    -0.65648484230042,
    0.40976619720459,
    -0.49395772814751,
    0.888265907764435,
    -0.984230697155,
    0.0560039803385735,
    -0.5665562748909,
    -0.58979779481888,
    -0.23127652704716,
    -1.25393259525299
   ],
   [
    -0.17918437719345,
    0.19375205039978,
    0.137356385588646,
    -0.20413269102573,
    -1.44202446937561,
    0.29502546787262,
    0.602589845657349,
    -1.8238160610199,
    0.30510887503624,
    0.421754509210587,
    -0.41776984930038,
    1.14469456672668,
    0.573548078536987,
    0.0474871918559074,
    1.10175240039825,
    -1.9755916595459
   ],
   [
    1.80735170841217,
    2.67208814620972,
    -0.68509960174561,
    -0.31155529618263,
    -2.44461822509766,
    -3.29404735565186,
    -0.7843719124794,
    0.310178160667419,
    2.48116445541382,
    -2.22645592689514,
    -0.49586859345436,
    -2.41299653053284,
    -2.84608149528503,
    3.1944375038147,
    -3.71716618537903,
    0.396865457296371
   ],
   [
    -0.84034931659698,
    0.276142090559006,
    0.177814334630966,
    -0.06336729973555,
    -0.2820617556572,
    -1.09799754619598,
    -0.13048195838928,
    0.438343971967697,
    -0.18246360123158,
    -0.51544958353043,
    -0.27887368202209,
    -0.74977666139603,
    0.0483822003006935,
    0.307344436645508,
    -1.09253692626953,
    0.272624969482422
   ],
   [
    -1.44843769073486,
    -1.48251497745514,
    -1.70790445804596,
    -2.86218786239624,
    1.45797669887543,
    -11.1986246109009,
    -1.34291243553162,
    -2.19338202476501,
    -2.02174305915833,
    0.507079422473907,
    -0.10444121807814,
    3.26871156692505,
    4.38733816146851,
    -2.06853747367859,
    4.84804344177246,
    0.653906106948853
   ],
   [
    -0.39059197902679,
    0.0152252186089754,
    -0.76573580503464,
    -0.9510470032692,
    -0.77149605751038,
    -3.56376028060913,
    0.0791385844349861,
    -1.42133784294128,
    0.17310443520546,
    -2.2568416595459,
    0.369419664144516,
    -0.34839594364166,
    1.13499534130096,
    0.435856074094772,
    0.678655207157135,
    0.734256207942963
   ],
   [
    -1.32071053981781,
    -1.70383930206299,
    -0.81629639863968,
    -2.42885327339172,
    -0.90929067134857,
    -3.60327696800232,
    -1.53324162960052,
    -0.71684545278549,
    -2.39649391174316,
    1.81617176532745,
    -1.77288234233856,
    -0.0369204133749,
    -1.53873431682587,
    -1.07988107204437,
    0.941789269447327,
    -0.09203393757343
   ],
   [
    0.0337359495460987,
    -0.91106283664703,
    -1.10064399242401,
    -0.57937806844711,
    -0.85884749889374,
    -1.3551881313324,
    -0.24155205488205,
    -0.85342937707901,
    0.0259476471692324,
    -1.38165271282196,
    -0.40338525176048,
    -0.76983559131622,
    -0.1655370593071,
    -0.23702202737331,
    -0.73824965953827,
    -0.48716160655022
   ],
   [
    -0.73817843198776,
    -0.24236749112606,
    -0.75298643112183,
    -1.19244933128357,
    -1.43500292301178,
    -1.24506378173828,
    -0.42160427570343,
    1.35011732578278,
    -1.23653638362885,
    -0.54949253797531,
    -1.71459972858429,
    -1.25185012817383,
    -1.61507618427277,
    -0.86568653583527,
    -1.44841957092285,
    -1.70922374725342
   ],
   [
    -0.6825767159462,
    -0.27156290411949,
    -0.43926456570625,
    -0.2033109664917,
    -0.75879126787186,
    -1.25660312175751,
    -0.26589199900627,
    0.456490188837051,
    -0.06483039259911,
    -0.76362133026123,
    -0.41479590535164,
    -1.27797019481659,
    -0.12056814134121,
    0.207682862877846,
    -1.03189253807068,
    -0.68733942508698
   ]
  ],
  [
   [
    4.92219114303589,
    0.734879434108734,
    -0.62085109949112,
    1.02575755119324,
    -0.10590346157551,
    2.35724258422852,
    2.05299305915833,
    0.236497923731804,
    -4.76601552963257,
    1.0388548374176,
    -4.94241142272949,
    1.19055557250977,
    0.472660034894943,
    0.434882342815399,
    2.05834794044495,
    1.09139239788055
   ],
   [
    -0.51968538761139,
    -1.39046001434326,
    -1.09713804721832,
    -0.95674985647202,
    -1.83936166763306,
    -0.75652402639389,
    0.291696906089783,
    0.198232546448708,
    -4.84976100921631,
    -1.2188001871109,
    -5.61120843887329,
    -2.88469433784485,
    6.2938117980957,
    -1.93651187419891,
    -1.10866403579712,
    -1.69079065322876
   ],
   [
    -4.12609004974365,
    0.836951494216919,
    1.20615947246552,
    1.14850842952728,
    -1.32034480571747,
    -0.92244076728821,
    0.748370766639709,
    2.38267612457275,
    -1.11804604530334,
    -0.07919154316187,
    -2.08827614784241,
    -1.09287369251251,
    1.97256696224213,
    -0.09297329187393,
    2.52628135681152,
    0.613423645496368
   ]
  ]
 ]
}